-0.007410897,0.001931535,-0.005932693,-0.022145615,-0.06522983,0.00046287,-0.006923322,-0.000759254,0.019300387,-0.006317558,0.015004732,-0.041655514,0.006009014,-0.014580599,0.032966339,0.001000231,0.000457719,0.000681218,0.004625333,0.011105162,-0.000873746,0.001154548,-0.000264611,-0.001540294,-0.000836496,0.004819627,-0.00078973,0.000190719,-0.002355309,-0.003627218,-0.002086964,-0.001982637,-0.000611034,0.00087727,0.000876866,-0.006257359,0.000162618,-0.003440559,-0.001511455,-0.000219421,-0.002963716,0,0,-0.001873015,-0.002629758,0,0.001942081,0,-0.000452735,0,0,0,0,9.38E-05,0,0.00316732,0.00136488,0,0.004269121,0.007432353,0.00284949,0,0.003551257,0.00436313,-0.00611929,0.002007383,0.006573515,0,0.010344106,0.012963164,-0.001405225,0.010329564,0.002309754,-0.008121194,0.011741628,-9.49E-05,-0.000603339,0.00320151,0.014330457,0.003208042,0.030969749,0.009398762,-0.000770386,0.002917065,0.005020081,0.006329662,0.00791028,0.018875508,0.032520983,0,0.068633802,0.001473312,0.000792322,-0.030192383,-0.006596231,0.002355703,-0.023842681,0.000737524,-0.003931841,-0.000902514,-0.002544684,0.006327557,-0.104766396,7.06E-05,-0.002689903,0.003901208,-0.002250299,-0.000653387,0.001945677,0.011219303,0.004289309,0.00046224,-0.003303182,-0.01225518,-0.015201327,-0.018838041,0,0.020681454,0.00427264,-0.009892038,-0.170459309,-0.00896161,-0.00224324,6.61E-05,-0.010369089,-0.001539854,-0.008326647,-0.0057023,3.48E-05,0.046077389,0.186825373,0.013571968,0.019342655,-0.008675654,-0.017220048,-0.011863054,-0.002659226,0.019121624,0.010632668,0.034313094,0.002553671,-0.005302928,-0.004584924,0.009231996,-1.37E-05,0.007756925,-0.002264089,0.033370504,-0.002906895,0.008169273,0.000153025,0,-0.001986802,0,9.18E-05,0.003197071,0.000430883,-0.000571697,0.001443983,-0.011804457,0.002746371,-0.025776975,-0.024117858,0.000727145,0.006148698,4.26E-05,0.272674674,0.002195989,0,0.065089162,0.008553175,0.015393073,0.034735241,0.05779292,0.103799242,0.120054276,0.006041441,0.091319854,0.04972922,2.589065796,0.010610251,0.028968729,0.035573478,0.030258994,0,0.008732528,0.031162361,0.016693159,0.148876936,0.112598372,0,0.133343653,0.51989589,0.368523006,0.911110403,0.741813182,0.308004166,0.312821732,0.035455017,0.69987707,26.15729404,0,1171.60168,0,0.72049818
